svm_type c_svc
kernel_type rbf
gamma 0.002
nr_class 2
total_sv 56
rho -0.22083219582293739
label 1 -1
nr_sv 27 29
SV
0.90887251028260407 1:1183.1668 2:527.36334 
1.2623204941285577 1:938.03825 2:564.47417 
0.46635734895611874 1:751.52724 2:614.95985 
0.82031950010322019 1:719.86576 2:524.35745 
1.5799146377406121 1:1088.7671 2:569.60323 
3 1:1037.6667 2:584.83646 
0.43769865897611632 1:863.29341 2:560.34722 
0.81264497927401114 1:841.46296 2:608.97287 
0.67065754655785936 1:952.34478 2:614.87422 
0.71864196487783372 1:767.71081 2:549.30597 
1.5057036934477459 1:845.04108 2:565.18267 
0.64158109478580994 1:767.16364 2:607.93895 
1.8095734599755664 1:1075.1689 2:575.72124 
0.76510463199609946 1:1027.8657 2:588.71683 
0.44135668403937012 1:741.1172 2:536.63211 
1.5889768143765972 1:905.26517 2:610.06537 
1.2768770550765993 1:799.29581 2:551.93099 
1.0078219598211235 1:854.38864 2:609.58797 
0.39013839780700205 1:792.60876 2:624.0588 
1.5933021143011517 1:1129.1781 2:562.2747 
0.78549700032963488 1:756.29201 2:546.76458 
0.99723088967990514 1:898.41254 2:567.59617 
0.77884464013361665 1:1408.4509 2:329.4613 
3 1:1069.6572 2:541.52258 
0.15368638710540877 1:738.59346 2:517.74235 
1.8347343679308632 1:971.97573 2:601.84745 
1.4127575433072286 1:809.77119 2:601.83013 
-0.76804036717692215 1:831.27899 2:437.76198 
-0.88479771680016761 1:746.36102 2:564.7097 
-1.5041477290145995 1:799.28169 2:575.53372 
-0.48828598049114424 1:754.16077 2:566.64128 
-0.78683708446747369 1:681.22667 2:541.00029 
-2.0252692044296752 1:916.44423 2:592.19024 
-1.5791601332811014 1:954.07801 2:588.45809 
-1.0383333081265995 1:1004.1814 2:579.6003 
-0.1555697348720439 1:679.04115 2:551.21567 
-0.061503302264472016 1:930.63285 2:587.78997 
-1.7501309338845175 1:829.28115 2:587.11139 
-0.42717629885284186 1:688.22814 2:557.65498 
-0.17842645306746061 1:1043.0219 2:570.95571 
-1.9554919625796887 1:856.93803 2:586.89358 
-1.1434789764387283 1:793.31897 2:423.49052 
-0.5632620654526187 1:820.94659 2:444.98376 
-3 1:1077.5301 2:555.03799 
-1.3446770905057241 1:973.70179 2:582.87414 
-1.5501589774760736 1:1070.5388 2:560.03364 
-0.041057908855915391 1:753.29139 2:580.19169 
-0.98617355004850993 1:721.81994 2:554.47077 
-1.2378593194731913 1:1149.7687 2:530.67334 
-1.8117503955368359 1:1118.4939 2:544.87504 
-0.35569205418464878 1:706.93907 2:550.3972 
-0.80239455552646877 1:1049.4325 2:569.38219 
-0.70883708387020206 1:774.4 2:570.67921 
-3 1:1032.8665 2:574.42809 
-0.017575977378979698 1:697.60821 2:558.66034 
-0.49452621095405092 1:766.59387 2:582.19367 
