svm_type c_svc
kernel_type rbf
gamma 5
nr_class 2
total_sv 480
rho -0.044887547783374324
label 1 -1
nr_sv 240 240
SV
0.95500486358269177 1:743.93396 2:535.35561 
0.82509181687987776 1:832.98901 2:614.9893 
0.95550043933277751 1:1183.1668 2:527.36334 
0.87415265922658658 1:809.16486 2:618.53427 
0.94459301384703442 1:844.10731 2:611.59341 
0.94235834235719562 1:731.41358 2:519.21908 
0.95504519890016626 1:938.03825 2:564.47417 
0.91861940981379975 1:828.93584 2:615.92551 
0.22209247753760242 1:749.6125 2:531.40161 
0.63718961330765667 1:834.0913 2:613.82874 
0.94930721015289854 1:835.21076 2:614.91833 
0.84329580618642908 1:830.25 2:616.23125 
0.81479747102985278 1:835.68293 2:616.12975 
0.95506285097542509 1:727.05132 2:518.96028 
0.74691963769508996 1:753.82622 2:533.55617 
0.68404592899320082 1:834.5 2:613.74787 
0.81790521025216822 1:836.58242 2:613.1398 
0.81776740485096611 1:837.16027 2:613.29149 
0.89279214500559323 1:825.1987 2:614.13468 
0.94937530908787127 1:821.38138 2:615.61906 
0.64682382539670513 1:740.17451 2:531.09692 
0.89686931359541844 1:757.46721 2:532.69903 
0.74007611636071102 1:774.76965 2:615.65916 
0.16482462437227674 1:753.88685 2:533.54019 
0.95468921437219612 1:761.35759 2:535.79328 
0.60269568118382477 1:840.06783 2:613.54899 
0.81290144942300691 1:838.67273 2:614.30568 
0.95480703093056118 1:1076.9311 2:577.59763 
0.33030687844407092 1:750.23817 2:532.3676 
0.95522584509890529 1:737.14395 2:517.33473 
0.95503220425204671 1:768.42034 2:614.04512 
0.89892044347039468 1:816.81481 2:618.32773 
0.89270456537177034 1:758.76827 2:532.12363 
0.95429736095794848 1:826.01101 2:617.87481 
0.95134371285171837 1:843.62138 2:610.23397 
0.95504275396113825 1:751.52724 2:614.95985 
0.9550526133740086 1:858.60168 2:560.39841 
0.95353510272147468 1:742.08333 2:532.20716 
0.95506470117092213 1:719.86576 2:524.35745 
0.95505286588776528 1:829.76009 2:619.07264 
0.93164962815721408 1:760.64399 2:534.80751 
0.94206470476733895 1:842.33716 2:613.34685 
0.95545837301217229 1:1088.7671 2:569.60323 
0.95386360698178185 1:745.24961 2:532.64001 
0.95548598258720951 1:1046.9063 2:595.02723 
0.5522675566425419 1:820.63274 2:617.99928 
0.88110869436278938 1:843.73982 2:613.50577 
0.87265273690710143 1:836.25455 2:615.67396 
0.95552770584039459 1:1037.6667 2:584.83646 
0.85692980643629901 1:842.48797 2:611.27061 
0.95509390107338366 1:747.02073 2:527.60653 
0.9555119400079759 1:793.34651 2:617.303 
0.65248890318512875 1:755.31327 2:533.89354 
0.95462628741589384 1:752.81957 2:532.08386 
0.95518528283565363 1:735.47376 2:532.48952 
0.91659678284185786 1:839.83333 2:614.49678 
0.84908525541626301 1:832.58 2:614.40759 
0.56529872812075999 1:751.69572 2:532.58583 
0.83571354232931416 1:756.7066 2:528.7704 
0.91683716423086292 1:751.19692 2:533.32572 
0.9547157801487749 1:731.45271 2:522.66696 
0.95547113241479165 1:851.02304 2:608.83163 
0.95545727943242231 1:845.25654 2:556.25057 
0.9554645392752199 1:898.61695 2:614.09847 
0.95505003856105641 1:863.29341 2:560.34722 
0.95506509040579368 1:733.87304 2:518.47227 
0.955059007805244 1:768.40084 2:617.76184 
0.95499629308654022 1:735.76672 2:519.26211 
0.95545353903166741 1:749.69861 2:534.9957 
0.56588613604037097 1:847.06561 2:612.90414 
0.575107831205663 1:825.47973 2:616.59451 
0.9526926425320541 1:760.0626 2:530.90233 
0.71532104329168866 1:845.07333 2:612.46109 
0.95540204004759444 1:756.04938 2:618.52142 
0.95512115332634195 1:783.44368 2:620.05632 
0.73699114816049371 1:841.46296 2:608.97287 
0.9472675272521156 1:755.84816 2:529.20469 
0.88979819678659677 1:824.88352 2:614.79119 
0.95526802702403524 1:952.34478 2:614.87422 
0.86745489720082947 1:750.18799 2:533.16163 
0.78127083397681218 1:843.19111 2:611.38693 
0.90331336514063298 1:829.41593 2:616.56763 
0.67876181149944537 1:843.43619 2:612.90913 
0.66456263710219721 1:755.46889 2:532.44646 
0.86037124334133652 1:833.63656 2:612.13238 
0.95523989532535891 1:767.71081 2:549.30597 
0.41370947833836386 1:840.2092 2:613.39326 
0.95520141295885908 1:845.04108 2:565.18267 
0.95504726233445703 1:762.84424 2:534.00002 
0.94234607931478265 1:730.48541 2:519.22923 
0.95521221991060135 1:767.16364 2:607.93895 
0.88601405583882786 1:757.19535 2:532.01395 
0.69973174675517003 1:827.85227 2:612.79918 
0.95513614759761201 1:829.86105 2:614.65508 
0.95554086815503514 1:1075.1689 2:575.72124 
0.60229808361573578 1:827.02649 2:616.76918 
0.95539019952083248 1:772.87052 2:619.2165 
0.77661146054748853 1:847.60089 2:613.45396 
0.67624825117635523 1:819.14255 2:615.63091 
0.8739242423182082 1:809.55187 2:619.10514 
0.9546703723918295 1:741.39445 2:530.64061 
0.95520167014710944 1:1027.8657 2:588.71683 
0.64875335116385358 1:825.2989 2:616.90328 
0.83842239575113142 1:754.79563 2:534.42281 
0.9074655115084479 1:842.23556 2:612.42242 
0.95521861688428733 1:1030.4265 2:591.08253 
0.95523724701932267 1:759.90103 2:617.30437 
0.69876759454994231 1:839.46725 2:612.47218 
0.95352620119987852 1:816.63848 2:615.20668 
0.95504543784516649 1:741.1172 2:536.63211 
0.95523660039392133 1:905.26517 2:610.06537 
0.95546113973365354 1:747.88906 2:530.95542 
0.95505377828924887 1:770.65157 2:617.96033 
0.89467714219274974 1:833.61798 2:614.50019 
0.34077098845833453 1:845.3459 2:612.3569 
0.95489891766465507 1:742.25192 2:535.30258 
0.95515590320214094 1:799.29581 2:551.93099 
0.95516187284387832 1:854.38864 2:609.58797 
0.95514280418630215 1:757.65179 2:542.15536 
0.95522237865903026 1:820.32669 2:612.26236 
0.95433215192189602 1:851.11888 2:611.36167 
0.95555306592868816 1:1091.3925 2:570.68072 
0.55197133597515569 1:760.7776 2:538.41714 
0.95490697879037556 1:820.08571 2:619.16286 
0.95506471723059649 1:739.91515 2:532.89832 
0.94083798662731233 1:826.25216 2:615.55023 
0.55352052854436085 1:820.88529 2:617.99837 
0.95344692999623726 1:754.12739 2:529.56666 
0.65514082334570511 1:843.17489 2:612.47379 
0.67935234508058384 1:750.54532 2:532.53834 
0.95499773472218508 1:736.73479 2:520.25549 
0.20331919518773711 1:752.59105 2:538.00781 
0.91666834858412849 1:832.16364 2:615.19226 
0.95502450956326312 1:720.14438 2:521.86628 
0.78739458895169268 1:754.59783 2:533.76415 
0.95515866047597298 1:748.13333 2:529.38668 
0.7994386604249949 1:827.12009 2:616.20983 
0.42077711919155003 1:752.77829 2:534.29258 
0.76453413794078773 1:752.52359 2:533.92896 
0.92135427999124975 1:840.94144 2:613.24185 
0.95492424260296427 1:828.16122 2:617.42352 
0.95492353465046753 1:745.15949 2:533.91721 
0.42560771995331281 1:755.66883 2:533.66156 
0.76480098142059583 1:826.50459 2:616.71158 
0.9551222743290988 1:788.00586 2:621.89446 
0.95510316896108549 1:1044.9298 2:586.5181 
0.95497319280487447 1:746.4576 2:532.79564 
0.78244899425771286 1:755.86385 2:533.23225 
0.9453156527594353 1:757.86783 2:531.33254 
0.95243726214878688 1:741.68285 2:534.13945 
0.95512637503159792 1:1046.2078 2:591.42191 
0.66864775004245358 1:842.87558 2:611.93125 
0.95480474888696487 1:735.46411 2:530.5687 
0.93177559140350652 1:760.3615 2:533.99616 
0.95506572150180469 1:845.71918 2:615.84541 
0.80891452960182009 1:847.57048 2:612.59944 
0.95497075372987061 1:766.88548 2:616.7146 
0.9550716309923899 1:725.95313 2:522.08071 
0.94926118786990266 1:820.91522 2:616.50892 
0.79834348375635733 1:749.64274 2:530.92667 
0.91114149428756885 1:837.70897 2:615.68599 
0.81537743991136491 1:749.721 2:532.42114 
0.89596936707753583 1:756.48995 2:535.03475 
0.95506807413671724 1:792.60876 2:624.0588 
0.77024041355805106 1:839.07333 2:614.7334 
0.89043853485157354 1:759.18809 2:531.52469 
0.95505549822319091 1:1129.1781 2:562.2747 
0.95549849867541381 1:753.01827 2:528.51438 
0.55271517454543773 1:760.76119 2:538.16611 
0.95533498895269753 1:755.70552 2:537.91441 
0.69968674951459342 1:828.10667 2:612.42913 
0.93698578942858102 1:839.37045 2:611.04704 
0.95504926030530668 1:804.82432 2:617.27657 
0.95509651292611231 1:817.79118 2:612.08991 
0.46431984063012754 1:751.77896 2:532.78014 
0.95406767711603824 1:817.74434 2:615.48384 
0.95546419360485457 1:822.29654 2:617.20631 
0.95505286589111382 1:756.29201 2:546.76458 
0.9312615939772495 1:847.098 2:611.84506 
0.95525243156283823 1:811.4965 2:616.36987 
0.90792696190333688 1:837.80674 2:614.91374 
0.95506562624502933 1:764.26749 2:618.12846 
0.95505904872167857 1:749.75039 2:541.15162 
0.81942964064516322 1:845.91629 2:612.21578 
0.56277589466695155 1:847.06497 2:613.35618 
0.64719694746241263 1:739.82353 2:531.2565 
0.67928171868136378 1:841.93819 2:608.92138 
0.95506449149070949 1:732.78428 2:521.48359 
0.78171772277541662 1:743.89097 2:536.67246 
0.9546455351057781 1:1078.3103 2:576.29652 
0.95503617069585023 1:747.92429 2:538.05821 
0.93517280605705178 1:835.48889 2:610.81465 
0.73985320192956694 1:774.39923 2:615.99086 
0.95502186182898363 1:898.41254 2:567.59617 
0.89918543063310041 1:816.16094 2:618.68339 
0.67682105908135259 1:752.84641 2:538.23208 
0.95502503169630071 1:778.45697 2:537.64084 
0.95539098271833323 1:748.53271 2:533.93224 
0.7822831530499027 1:743.50917 2:537.06725 
0.92405314564510677 1:842.47545 2:609.5006 
0.93841773326259048 1:831.83262 2:613.93031 
0.68719530726337852 1:755.05431 2:532.55649 
0.1028583633757344 1:835.8967 2:616.05727 
0.9548561707874107 1:742.70654 2:530.59294 
0.9510620383675481 1:844.64835 2:610.52498 
0.955459858839659 1:1408.4509 2:329.4613 
0.95544999026690336 1:745.04025 2:531.18239 
0.95478299961361446 1:1069.6572 2:541.52258 
0.95311243903058107 1:754.57209 2:528.54822 
0.6758016864767602 1:819.34698 2:615.2631 
0.95549804977424624 1:813.74058 2:617.32006 
0.95507373476247315 1:821.99787 2:614.31667 
0.95104087924020941 1:742.36364 2:533.28276 
0.95481136930639143 1:756.99024 2:536.22119 
0.95506485151697618 1:721.3653 2:523.3765 
0.95554896685310187 1:732.11956 2:516.30448 
0.95541853334838411 1:738.59346 2:517.74235 
0.89447970294701173 1:756.53956 2:534.29934 
0.68090145823322012 1:749.8474 2:531.53787 
0.95540889182903521 1:816.22543 2:612.34949 
0.93517877112102321 1:836.36645 2:610.80712 
0.69957655658485152 1:839.01952 2:612.50339 
0.85941847780441427 1:832.98542 2:612.26006 
0.9550716309923899 1:971.97573 2:601.84745 
0.77126374967504141 1:753.2519 2:534.2432 
0.95478695790586343 1:731.50627 2:523.95015 
0.52238366359429556 1:751.84395 2:530.77598 
0.84623821063787563 1:756.83254 2:528.14448 
0.95409999068342821 1:843.20136 2:614.54727 
0.94613324657552766 1:849.91533 2:611.46207 
0.8937834947327663 1:846.15 2:611.51832 
0.86126829408846417 1:830.89318 2:616.39139 
0.93662338155595126 1:838.56804 2:610.67152 
0.9551222743290988 1:809.77119 2:601.83013 
0.94633674802891066 1:849.03497 2:611.86536 
0.95526578760233916 1:890.69704 2:567.44652 
0.52117236404474099 1:752.01757 2:530.86018 
0.94762187394789921 1:835.56264 2:613.9621 
0.680800177310382 1:752.31355 2:538.21744 
0.9198413643065666 1:825.34177 2:615.79239 
-1 1:741.03236 2:567.48453 
-1 1:747.15291 2:566.77403 
-1 1:689.75 2:547.24995 
-1 1:769.90785 2:580.55817 
-1 1:691.03125 2:543.52044 
-0.60849320342042612 1:692.12048 2:555.42164 
-1 1:831.27899 2:437.76198 
-0.92421723262358257 1:682.5641 2:550.76152 
-1 1:765.24101 2:577.36127 
-0.83077809723950946 1:698.34962 2:557.86706 
-0.67572999355631824 1:689.67568 2:556.34874 
-0.88761444286654678 1:767.22581 2:575.78397 
-1 1:698.42562 2:553.96457 
-1 1:746.36102 2:564.7097 
-0.8213277469741056 1:697.99592 2:549.57823 
-0.76472061985400364 1:692.57741 2:552.69081 
-1 1:799.28169 2:575.53372 
-0.94623341237813985 1:682.27801 2:551.389 
-0.77183112879027538 1:691.21757 2:552.86417 
-0.83798639518583773 1:687.21008 2:553.09663 
-0.74155411202206967 1:692.79508 2:549.61621 
-0.17797101384498332 1:690.5 2:551.57014 
-0.63735776643209352 1:683.42387 2:551.18618 
-1 1:754.16077 2:566.64128 
-1 1:764.58446 2:573.71939 
-0.99146481773729644 1:686.61983 2:546.42409 
-0.73709281335631438 1:693.54321 2:555.48501 
-0.064291212796093011 1:694.62295 2:553.47019 
-1 1:767.40397 2:580.49866 
-0.96283431092047078 1:689.96018 2:548.91614 
-1 1:681.22667 2:541.00029 
-1 1:916.44423 2:592.19024 
-1 1:954.07801 2:588.45809 
-0.89470320836777173 1:692.59231 2:557.39316 
-0.85065520514060644 1:700.20158 2:555.11589 
-0.8450151186290491 1:695.568 2:550.82224 
-0.52248994718042285 1:690.85603 2:555.00597 
-1 1:750.589 2:568.69764 
-1 1:1004.1814 2:579.6003 
-1 1:679.04115 2:551.21567 
-0.69836976401989304 1:687.7437 2:552.72535 
-1 1:762.69649 2:573.49733 
-1 1:700.31405 2:552.67657 
-1 1:689.42489 2:546.44829 
-0.73126541724795602 1:690.64167 2:551.64796 
-0.74013583786560344 1:698.5122 2:554.95234 
-1 1:1007.9335 2:576.7315 
-0.83289244416595243 1:695.56225 2:553.57629 
-0.98134269685311437 1:694.74704 2:556.13089 
-1 1:930.63285 2:587.78997 
-1 1:770.11254 2:570.34288 
-1 1:688.17871 2:547.75226 
-1 1:698.41434 2:556.34663 
-0.1942731517207717 1:699.30705 2:555.72085 
-1 1:773.6844 2:576.67835 
-1 1:693.65873 2:550.32919 
-0.83639592306881216 1:762.77372 2:578.47609 
-1 1:757.58885 2:580.71888 
-1 1:683.70038 2:550.36044 
-0.82072976727670255 1:699.89627 2:555.65125 
-0.35556251667516692 1:687.69748 2:553.02928 
-1 1:774.45734 2:580.2664 
-1 1:746.94795 2:575.16033 
-1 1:829.28115 2:587.11139 
-0.74067472986361449 1:697.35537 2:555.6949 
-1 1:753.27305 2:571.44371 
-0.94719085509431555 1:695 2:549.60377 
-0.92277471962833268 1:765.9727 2:574.09941 
-1 1:744.20069 2:570.39632 
-0.65917091359575208 1:687.08714 2:552.02088 
-0.84203628009878828 1:689.28395 2:555.07294 
-1 1:686.09787 2:550.98907 
-1 1:736.75458 2:568.01297 
-1 1:688.22814 2:557.65498 
-0.72931571293770303 1:692.13389 2:552.94074 
-1 1:703.125 2:555.673 
-1 1:828.52012 2:584.56308 
-1 1:688.65306 2:548.85909 
-1 1:769.32847 2:577.74681 
-1 1:707.40404 2:553.45048 
-0.8360732266740486 1:697.89837 2:555.41772 
-0.9763313109227616 1:700.84426 2:555.45302 
-1 1:684.43373 2:554.38855 
-1 1:1043.0219 2:570.95571 
-0.82887386339182945 1:688.01575 2:555.18086 
-0.62442662027388973 1:694.74074 2:551.98884 
-0.91298073915741917 1:694.97233 2:551.03428 
-1 1:923.12168 2:588.87624 
-1 1:683.308 2:544.15929 
-0.31425125145607857 1:692.42857 2:553.48207 
-0.92529179514201143 1:689.93802 2:551.53095 
-0.82052092167808066 1:697.5214 2:549.392 
-0.55291783103058123 1:690.79231 2:555.09974 
-1 1:764.50719 2:579.9838 
-1 1:760.69286 2:580.18834 
-0.57220998281940272 1:687.10246 2:554.88803 
-0.56127560746020921 1:698.59664 2:555.34566 
-1 1:856.93803 2:586.89358 
-1 1:761.20819 2:571.89208 
-0.91744957979970587 1:767.70758 2:576.18899 
-1 1:793.31897 2:423.49052 
-0.96939146874982951 1:688.3891 2:555.84604 
-1 1:691.66154 2:557.63103 
-0.82342335298185176 1:762.87189 2:577.96121 
-0.29148285560429166 1:688.58025 2:555.15944 
-1 1:706.08088 2:550.66521 
-1 1:771.09783 2:577.44376 
-0.89597348849441483 1:697.29388 2:556.26518 
-1 1:820.94659 2:444.98376 
-1 1:767.37586 2:574.9616 
-1 1:700.624 2:557.31556 
-1 1:775.47059 2:578.54479 
-1 1:1077.5301 2:555.03799 
-0.55004739489210075 1:764.72843 2:569.90549 
-1 1:816.18519 2:436.79485 
-1 1:772.31493 2:578.69531 
-0.10258792554587925 1:693.55738 2:555.09467 
-0.93008831289621563 1:695.74609 2:557.0168 
-0.66531688554499635 1:684.94628 2:551.84366 
-1 1:760.65292 2:577.25404 
-0.61494701773740945 1:695.11392 2:553.75935 
-0.85985974876136029 1:692.56147 2:554.77838 
-0.78996998600652824 1:690.73469 2:553.57076 
-0.71974007665422135 1:691.94538 2:553.80338 
-0.90121087645263431 1:694.13566 2:551.75731 
-0.94136126186021618 1:696.21399 2:555.15547 
-0.21835372458295005 1:694.08197 2:553.80392 
-0.92985133927304497 1:696.08494 2:557.56791 
-0.62647412420172854 1:690.28034 2:553.34821 
-0.74046780909382237 1:692.6259 2:553.87788 
-0.70749808033532813 1:694.60494 2:555.07718 
-0.82903290315768441 1:692.96218 2:553.30335 
-0.52012872330987425 1:683.17427 2:551.24298 
-1 1:778.08148 2:576.76448 
-1 1:764.36301 2:574.9533 
-1 1:973.70179 2:582.87414 
-1 1:693.676 2:548.98543 
-0.63488014819949523 1:696.70566 2:551.75181 
-0.71447850271904234 1:693.20339 2:554.63377 
-1 1:750.48534 2:569.66544 
-1 1:684.72996 2:549.82111 
-0.89257708180826756 1:764.73118 2:579.04904 
-0.71715936792159574 1:695.49794 2:555.50856 
-1 1:1070.5388 2:560.03364 
-0.63880953963018128 1:696.69959 2:551.45231 
-1 1:697.23077 2:553.08816 
-1 1:758.53156 2:573.43513 
-1 1:693.107 2:551.83931 
-1 1:690.72083 2:546.72499 
-1 1:755.88513 2:578.71101 
-0.73924453619099617 1:693.81857 2:554.11997 
-1 1:695.59846 2:551.9612 
-1 1:917.7047 2:587.70575 
-1 1:757.72302 2:578.77201 
-1 1:753.29139 2:580.19169 
-0.9428856520102965 1:764.05357 2:578.95935 
-0.40799968047460666 1:688.79439 2:554.73672 
-1 1:694.06303 2:547.84269 
-0.039805160818936612 1:695.16872 2:555.21339 
-1 1:958.29002 2:584.838 
-0.6683270036682456 1:694.5124 2:552.34147 
-0.44981594671344316 1:694.67213 2:553.557 
-0.76515718858234083 1:766.06546 2:574.75528 
-0.94418889344991952 1:765.51536 2:578.95406 
-1 1:688.99592 2:553.09694 
-0.5103902713676538 1:687.05628 2:552.26591 
-0.67690655561378099 1:761.5471 2:577.31454 
-1 1:721.81994 2:554.47077 
-0.9213267936529661 1:697.4845 2:557.79806 
-0.10842689846771295 1:691.12971 2:552.84221 
-1 1:681.33471 2:550.90718 
-1 1:699.46988 2:552.10448 
-0.70661977966606071 1:756.87413 2:580.0739 
-0.65808018146523006 1:694.04 2:555.42318 
-0.41281476836068792 1:761.73759 2:577.63342 
-0.60880638820218813 1:693.69672 2:554.77815 
-0.61657018905407401 1:684.75417 2:552.10945 
-1 1:679.14063 2:549.9882 
-1 1:767.77818 2:577.22112 
-0.93905015523730007 1:691.97021 2:556.10472 
-1 1:694.32692 2:557.04298 
-0.88446136831953726 1:692.74694 2:556.80679 
-0.580883971268921 1:687.16393 2:554.68551 
-1 1:681.58 2:554.04345 
-1 1:685.37239 2:552.62117 
-0.96319883796852612 1:690.64961 2:549.04998 
-0.030042075962313244 1:690.12971 2:553.39675 
-1 1:704.02362 2:552.53258 
-1 1:756.07119 2:573.92544 
-1 1:1149.7687 2:530.67334 
-1 1:753.87255 2:573.58907 
-0.72317524794626431 1:756.83916 2:579.67856 
-1 1:1118.4939 2:544.87504 
-1 1:837.96726 2:588.48901 
-0.74280139600532469 1:762.11225 2:577.41534 
-1 1:692.90459 2:547.47651 
-1 1:706.93907 2:550.3972 
-1 1:692.46559 2:551.28434 
-0.85411458015163344 1:695.36 2:550.15523 
-0.86918364516758717 1:694.29412 2:553.10889 
-1 1:758.57187 2:569.49035 
-1 1:700.07937 2:558.18756 
-0.76090147984031609 1:691.88525 2:555.02732 
-1 1:762.82079 2:576.1081 
-1 1:689.78008 2:542.05973 
-1 1:689.06838 2:551.59589 
-1 1:689.81013 2:552.61564 
-1 1:1049.4325 2:569.38219 
-1 1:784.92983 2:574.88951 
-0.46955179269250358 1:694.28692 2:553.86028 
-1 1:760.59857 2:578.71943 
-0.67324417579811713 1:695.44082 2:555.03866 
-0.99157709843216535 1:687.1405 2:545.86449 
-1 1:774.4 2:570.67921 
-0.7806160232447471 1:690.99245 2:556.39481 
-1 1:1032.8665 2:574.42809 
-1 1:772.7614 2:581.3772 
-1 1:764.4552 2:578.12479 
-0.55077858950496394 1:764.58839 2:569.94729 
-1 1:754.60067 2:571.36679 
-0.74123435912896829 1:691.4856 2:553.52847 
-1 1:697.60821 2:558.66034 
-0.87594764517648804 1:690.79032 2:552.31554 
-0.97800285282509025 1:696.02966 2:554.38298 
-1 1:686.16735 2:553.84461 
-1 1:760.7884 2:573.72905 
-1 1:769.48797 2:573.47326 
-0.72042349307100373 1:698.04494 2:557.44978 
-0.84279046086570197 1:765.50676 2:574.73927 
-0.98478425145372128 1:765.87629 2:578.30081 
-0.78334134821987778 1:690.96169 2:556.86774 
-0.9160985968438341 1:689.76955 2:553.67801 
-1 1:766.59387 2:582.19367 
-0.74185523227889705 1:699.176 2:555.71826 
-0.94341201045988199 1:692.72835 2:555.89297 
-0.20605350719132576 1:688.91429 2:555.15556 
-0.59440948373476021 1:688.42748 2:554.70634 
-0.4950971871641035 1:694.79424 2:555.43342 
-0.6598014885168344 1:689.97619 2:556.50947 
-0.6190345253730396 1:693.13934 2:549.78126 
