svm_type c_svc
kernel_type rbf
gamma 0.002
nr_class 2
total_sv 67
rho -0.18879847812618383
label 1 -1
nr_sv 33 34
SV
0.91644870300663861 1:1183.1668 2:527.36334 
1 1:938.03825 2:564.47417 
0.060624918240583886 1:1076.9311 2:577.59763 
0.49395128579184416 1:751.52724 2:614.95985 
0.83349275993283256 1:719.86576 2:524.35745 
1 1:1088.7671 2:569.60323 
1 1:1037.6667 2:584.83646 
0.19066757769723799 1:898.61695 2:614.09847 
0.53767554684403751 1:863.29341 2:560.34722 
1 1:841.46296 2:608.97287 
0.86127358389722908 1:952.34478 2:614.87422 
0.86454197671479371 1:767.71081 2:549.30597 
1 1:845.04108 2:565.18267 
0.6378606437119797 1:767.16364 2:607.93895 
1 1:1075.1689 2:575.72124 
1 1:1027.8657 2:588.71683 
0.48017325923701348 1:741.1172 2:536.63211 
1 1:905.26517 2:610.06537 
1 1:799.29581 2:551.93099 
0.66976067817860241 1:854.38864 2:609.58797 
0.055391367069841366 1:820.08571 2:619.16286 
0.93155599328958516 1:1044.9298 2:586.5181 
0.4876665586356666 1:792.60876 2:624.0588 
1 1:1129.1781 2:562.2747 
0.0090453901397653368 1:828.10667 2:612.42913 
0.68496457977114222 1:756.29201 2:546.76458 
0.064622611497943794 1:841.93819 2:608.92138 
1 1:898.41254 2:567.59617 
0.81112012944297152 1:1408.4509 2:329.4613 
1 1:1069.6572 2:541.52258 
0.16650724006716738 1:738.59346 2:517.74235 
1 1:971.97573 2:601.84745 
1 1:809.77119 2:601.83013 
-0.74135049242459294 1:831.27899 2:437.76198 
-0.85621553638780001 1:746.36102 2:564.7097 
-1 1:799.28169 2:575.53372 
-0.48067077717372036 1:754.16077 2:566.64128 
-0.76765540204904303 1:681.22667 2:541.00029 
-1 1:916.44423 2:592.19024 
-1 1:954.07801 2:588.45809 
-0.38000585703923806 1:1004.1814 2:579.6003 
-0.14692283859386487 1:679.04115 2:551.21567 
-0.90550893203642735 1:1007.9335 2:576.7315 
-0.24047729964662667 1:930.63285 2:587.78997 
-1 1:829.28115 2:587.11139 
-0.42782638692741459 1:688.22814 2:557.65498 
-1 1:1043.0219 2:570.95571 
-1 1:856.93803 2:586.89358 
-1 1:793.31897 2:423.49052 
-0.55751366740589536 1:820.94659 2:444.98376 
-1 1:1077.5301 2:555.03799 
-0.0071975757403821995 1:816.18519 2:436.79485 
-1 1:973.70179 2:582.87414 
-1 1:1070.5388 2:560.03364 
-0.65085798391511263 1:917.7047 2:587.70575 
-0.053742615416069596 1:753.29139 2:580.19169 
-0.22959257004977174 1:958.29002 2:584.838 
-0.9734278969146607 1:721.81994 2:554.47077 
-1 1:1149.7687 2:530.67334 
-1 1:1118.4939 2:544.87504 
-0.91058923377412915 1:837.96726 2:588.48901 
-0.35560631343222737 1:706.93907 2:550.3972 
-0.76110759251335114 1:1049.4325 2:569.38219 
-0.10770927448652022 1:784.92983 2:574.88951 
-0.77835935837128911 1:774.4 2:570.67921 
-1 1:1032.8665 2:574.42809 
-0.42500719886873978 1:766.59387 2:582.19367 
