svm_type c_svc
kernel_type rbf
gamma 0.0018
nr_class 2
total_sv 65
rho -0.19409707223633335
label 1 -1
nr_sv 32 33
SV
0.9373655580373621 1:1183.1668 2:527.36334 
1 1:938.03825 2:564.47417 
0.11322164557100454 1:1076.9311 2:577.59763 
0.46678121293254116 1:751.52724 2:614.95985 
0.90625008098561122 1:719.86576 2:524.35745 
1 1:1088.7671 2:569.60323 
1 1:1037.6667 2:584.83646 
0.025115041725638006 1:845.25654 2:556.25057 
0.24237584400618628 1:898.61695 2:614.09847 
0.52595920178256095 1:863.29341 2:560.34722 
1 1:841.46296 2:608.97287 
0.89699619696446531 1:952.34478 2:614.87422 
0.88965819590786255 1:767.71081 2:549.30597 
1 1:845.04108 2:565.18267 
0.65360248124925091 1:767.16364 2:607.93895 
1 1:1075.1689 2:575.72124 
1 1:1027.8657 2:588.71683 
0.45569869324027962 1:741.1172 2:536.63211 
1 1:905.26517 2:610.06537 
1 1:799.29581 2:551.93099 
0.63745535044477553 1:854.38864 2:609.58797 
1 1:1044.9298 2:586.5181 
0.43881155091016566 1:792.60876 2:624.0588 
1 1:1129.1781 2:562.2747 
0.77936752935859899 1:756.29201 2:546.76458 
0.20255680905521065 1:841.93819 2:608.92138 
1 1:898.41254 2:567.59617 
0.80567161447759295 1:1408.4509 2:329.4613 
1 1:1069.6572 2:541.52258 
0.075173259553282773 1:738.59346 2:517.74235 
1 1:971.97573 2:601.84745 
1 1:809.77119 2:601.83013 
-0.75306380388792948 1:831.27899 2:437.76198 
-0.78627250563402329 1:746.36102 2:564.7097 
-1 1:799.28169 2:575.53372 
-0.64708519874807946 1:754.16077 2:566.64128 
-0.77029891885586133 1:681.22667 2:541.00029 
-1 1:916.44423 2:592.19024 
-1 1:954.07801 2:588.45809 
-0.39014579777641878 1:1004.1814 2:579.6003 
-0.16569613824471907 1:679.04115 2:551.21567 
-0.9002571951725139 1:1007.9335 2:576.7315 
-0.10503458269385332 1:930.63285 2:587.78997 
-1 1:829.28115 2:587.11139 
-0.36248943329125444 1:688.22814 2:557.65498 
-0.0005377794445818344 1:828.52012 2:584.56308 
-1 1:1043.0219 2:570.95571 
-1 1:856.93803 2:586.89358 
-1 1:793.31897 2:423.49052 
-0.51830417623075675 1:820.94659 2:444.98376 
-1 1:1077.5301 2:555.03799 
-0.98198331512812287 1:973.70179 2:582.87414 
-1 1:1070.5388 2:560.03364 
-0.84455279700752495 1:917.7047 2:587.70575 
-0.30597113273685206 1:958.29002 2:584.838 
-1 1:721.81994 2:554.47077 
-1 1:1149.7687 2:530.67334 
-1 1:1118.4939 2:544.87504 
-1 1:837.96726 2:588.48901 
-0.33559014042312857 1:706.93907 2:550.3972 
-0.87639293138063612 1:1049.4325 2:569.38219 
-0.14273270218799475 1:784.92983 2:574.88951 
-0.77363611587463632 1:774.4 2:570.67921 
-1 1:1032.8665 2:574.42809 
-0.39201560148350195 1:766.59387 2:582.19367 
