svm_type c_svc
kernel_type rbf
gamma 0.01
nr_class 2
total_sv 102
rho -0.12893983384746172
label 1 -1
nr_sv 57 45
SV
0.87099052452121817 1:1183.1668 2:527.36334 
0.87407354945745608 1:938.03825 2:564.47417 
0.067642353724738771 1:727.05132 2:518.96028 
0.044483145942145016 1:774.76965 2:615.65916 
0.6379837942246247 1:751.52724 2:614.95985 
0.13083667156271561 1:858.60168 2:560.39841 
0.60614951720499255 1:719.86576 2:524.35745 
0.46593323244489387 1:829.76009 2:619.07264 
0.30652318493874103 1:1088.7671 2:569.60323 
0.64166975488218858 1:1046.9063 2:595.02723 
0.73080649273539877 1:1037.6667 2:584.83646 
0.32810254444076653 1:747.02073 2:527.60653 
0.31981113077532819 1:793.34651 2:617.303 
0.50391844715190948 1:735.47376 2:532.48952 
0.565237913943899 1:845.25654 2:556.25057 
0.55590111119625751 1:898.61695 2:614.09847 
0.73117155277238122 1:863.29341 2:560.34722 
0.22088727892554416 1:756.04938 2:618.52142 
0.41658619171749323 1:783.44368 2:620.05632 
0.29147759060551048 1:841.46296 2:608.97287 
0.86836629755185746 1:952.34478 2:614.87422 
0.66366430907023144 1:767.71081 2:549.30597 
0.58504482303300198 1:845.04108 2:565.18267 
0.4151482082035905 1:762.84424 2:534.00002 
0.64055637951904831 1:767.16364 2:607.93895 
0.87543285287971673 1:1075.1689 2:575.72124 
0.44164487719858536 1:772.87052 2:619.2165 
0.37349966286591096 1:809.55187 2:619.10514 
0.71302392651284041 1:1027.8657 2:588.71683 
0.26548486489112083 1:741.1172 2:536.63211 
0.57727095998317746 1:905.26517 2:610.06537 
0.87426295058992121 1:799.29581 2:551.93099 
0.69278701193107961 1:854.38864 2:609.58797 
0.327452830147 1:820.32669 2:612.26236 
0.5535980994450056 1:1091.3925 2:570.68072 
0.28366964090490754 1:820.08571 2:619.16286 
0.16874000801484734 1:720.14438 2:521.86628 
0.23780442840222199 1:1044.9298 2:586.5181 
0.37818473772044925 1:845.71918 2:615.84541 
0.44521585843075967 1:792.60876 2:624.0588 
0.88655734865125857 1:1129.1781 2:562.2747 
0.055208480649574183 1:828.10667 2:612.42913 
0.32163166689114864 1:804.82432 2:617.27657 
0.46464364088752191 1:756.29201 2:546.76458 
0.20431622912232977 1:764.26749 2:618.12846 
0.35943779111516305 1:749.75039 2:541.15162 
0.31005195488324877 1:835.48889 2:610.81465 
0.56265300361851134 1:898.41254 2:567.59617 
0.78079044001846087 1:778.45697 2:537.64084 
0.87122966230936649 1:1408.4509 2:329.4613 
0.97105194637635139 1:1069.6572 2:541.52258 
0.375291269076097 1:732.11956 2:516.30448 
0.46928408855632009 1:738.59346 2:517.74235 
0.90381183696447043 1:971.97573 2:601.84745 
0.45963313658268068 1:756.83254 2:528.14448 
0.78584974603510238 1:809.77119 2:601.83013 
0.5606957753285966 1:890.69704 2:567.44652 
-0.089104889413128968 1:691.03125 2:543.52044 
-0.92259002379106514 1:831.27899 2:437.76198 
-0.40801884430093843 1:746.36102 2:564.7097 
-1 1:799.28169 2:575.53372 
-0.52460237887641958 1:754.16077 2:566.64128 
-0.60609464864218987 1:681.22667 2:541.00029 
-0.75761148255773469 1:916.44423 2:592.19024 
-0.75464439345564527 1:954.07801 2:588.45809 
-0.62618510807883543 1:1004.1814 2:579.6003 
-0.65190782331680408 1:679.04115 2:551.21567 
-0.6294433324520593 1:1007.9335 2:576.7315 
-0.98087786572240476 1:930.63285 2:587.78997 
-0.070315949716084777 1:757.58885 2:580.71888 
-0.26500850750301508 1:746.94795 2:575.16033 
-0.87536631482015337 1:736.75458 2:568.01297 
-0.61902949810823604 1:688.22814 2:557.65498 
-0.84494995012602991 1:828.52012 2:584.56308 
-0.34975865467551104 1:1043.0219 2:570.95571 
-0.069978214846803152 1:697.5214 2:549.392 
-1 1:856.93803 2:586.89358 
-1 1:793.31897 2:423.49052 
-0.62293700160093946 1:820.94659 2:444.98376 
-0.85234819906402848 1:1077.5301 2:555.03799 
-0.52120255254554904 1:764.72843 2:569.90549 
-0.78034235258859974 1:816.18519 2:436.79485 
-1 1:973.70179 2:582.87414 
-0.81520750382532703 1:1070.5388 2:560.03364 
-0.33607661884922058 1:917.7047 2:587.70575 
-0.67450260652377247 1:753.29139 2:580.19169 
-0.1139836318003203 1:694.06303 2:547.84269 
-0.49299118448646329 1:958.29002 2:584.838 
-1 1:721.81994 2:554.47077 
-1 1:1149.7687 2:530.67334 
-1 1:1118.4939 2:544.87504 
-0.81386892367861186 1:837.96726 2:588.48901 
-0.76606999636012518 1:706.93907 2:550.3972 
-0.44690416343121403 1:700.07937 2:558.18756 
-0.48388210241476315 1:689.78008 2:542.05973 
-0.87812036006634275 1:1049.4325 2:569.38219 
-0.78451882040643728 1:784.92983 2:574.88951 
-0.49529529312490295 1:774.4 2:570.67921 
-1 1:1032.8665 2:574.42809 
-0.43215957078795697 1:772.7614 2:581.3772 
-0.19409284862085432 1:697.60821 2:558.66034 
-0.48318511695119126 1:766.59387 2:582.19367 
